{
  "schema_version": 1,
  "source_v12_instruction_sha256": "c3d67df4cadc2f3598ed68ec4499a2c53f6513a42da6013fab4fd6d47553d09a",
  "rows": [
    {
      "created_at": "2025-07-14T00:00:00Z",
      "core_weights": [
        "-0.041666666666",
        "-0.041666666666",
        "0.031250000000",
        "-0.041666666666",
        "0.031250000000",
        "0E-12",
        "0.062500000000",
        "-0.041666666666",
        "0.062500000000",
        "-0.083333333333",
        "0.062500000000",
        "0E-12"
      ]
    },
    {
      "created_at": "2025-07-21T00:00:00Z",
      "core_weights": [
        "-0.083333333333",
        "-0.010416666666",
        "-0.041666666666",
        "0E-12",
        "0E-12",
        "0E-12",
        "0.062500000000",
        "0.031250000000",
        "0.062500000000",
        "-0.083333333333",
        "0.062500000000",
        "0E-12"
      ]
    },
    {
      "created_at": "2025-07-28T00:00:00Z",
      "core_weights": [
        "-0.010288779194",
        "-0.010288779194",
        "0.030866337582",
        "0.030866337582",
        "-0.041155116777",
        "0E-12",
        "-0.010288779194",
        "-0.041155116777",
        "0.030866337582",
        "-0.010288779194",
        "0.030866337582",
        "0E-12"
      ]
    },
    {
      "created_at": "2025-08-04T00:00:00Z",
      "core_weights": [
        "-0.010416666666",
        "-0.010416666666",
        "0.031250000000",
        "0E-12",
        "0E-12",
        "0E-12",
        "0.062500000000",
        "-0.041666666666",
        "-0.010416666666",
        "-0.010416666666",
        "-0.010416666666",
        "0E-12"
      ]
    },
    {
      "created_at": "2025-08-11T00:00:00Z",
      "core_weights": [
        "-0.062500000000",
        "0E-12",
        "0.031250000000",
        "0.031250000000",
        "-0.031250000000",
        "0E-12",
        "-0.062500000000",
        "0.062500000000",
        "0E-12",
        "0E-12",
        "0.031250000000",
        "0E-12"
      ]
    },
    {
      "created_at": "2025-08-18T00:00:00Z",
      "core_weights": [
        "-0.031250000000",
        "0E-12",
        "0.062500000000",
        "0E-12",
        "-0.031250000000",
        "0E-12",
        "-0.062500000000",
        "0E-12",
        "0E-12",
        "0.031250000000",
        "-0.031250000000",
        "0.062500000000"
      ]
    },
    {
      "created_at": "2025-08-25T00:00:00Z",
      "core_weights": [
        "-0.062500000000",
        "0.062500000000",
        "0E-12",
        "0.031250000000",
        "0E-12",
        "0E-12",
        "-0.062500000000",
        "0.062500000000",
        "0E-12",
        "-0.031250000000",
        "0E-12",
        "0E-12"
      ]
    },
    {
      "created_at": "2025-09-01T00:00:00Z",
      "core_weights": [
        "0E-12",
        "-0.031250000000",
        "0.031250000000",
        "0.062500000000",
        "0.031250000000",
        "0E-12",
        "-0.062500000000",
        "-0.062500000000",
        "-0.031250000000",
        "0E-12",
        "0E-12",
        "0.062500000000"
      ]
    },
    {
      "created_at": "2025-09-08T00:00:00Z",
      "core_weights": [
        "-0.062500000000",
        "-0.031250000000",
        "0.031250000000",
        "0E-12",
        "0.062500000000",
        "0E-12",
        "-0.031250000000",
        "-0.062500000000",
        "0E-12",
        "-0.031250000000",
        "0.062500000000",
        "0.062500000000"
      ]
    },
    {
      "created_at": "2025-09-15T00:00:00Z",
      "core_weights": [
        "-0.040202014325",
        "-0.020101007162",
        "0.040202014325",
        "0.020101007162",
        "0E-12",
        "0E-12",
        "-0.040202014325",
        "-0.040202014325",
        "0E-12",
        "0E-12",
        "0.040202014325",
        "0.040202014325"
      ]
    },
    {
      "created_at": "2025-09-22T00:00:00Z",
      "core_weights": [
        "0E-12",
        "-0.019316187415",
        "0E-12",
        "0E-12",
        "0.019316187415",
        "0E-12",
        "-0.019316187415",
        "0E-12",
        "0.038632374831",
        "-0.019316187415",
        "0E-12",
        "0E-12"
      ]
    },
    {
      "created_at": "2025-09-29T00:00:00Z",
      "core_weights": [
        "0E-12",
        "-0.019367944704",
        "0.019367944704",
        "-0.019367944704",
        "0.038735889409",
        "0E-12",
        "0E-12",
        "0E-12",
        "-0.019367944704",
        "0E-12",
        "0E-12",
        "0E-12"
      ]
    },
    {
      "created_at": "2025-10-06T00:00:00Z",
      "core_weights": [
        "0E-12",
        "0E-12",
        "-0.012840078397",
        "-0.012840078397",
        "0.025680156794",
        "0E-12",
        "-0.025680156794",
        "-0.012840078397",
        "0.012840078397",
        "0.012840078397",
        "0E-12",
        "0.012840078397"
      ]
    },
    {
      "created_at": "2025-10-13T00:00:00Z",
      "core_weights": [
        "0E-12",
        "0E-12",
        "-0.012273486603",
        "-0.012273486603",
        "0.024546973206",
        "0E-12",
        "-0.012273486603",
        "0E-12",
        "0E-12",
        "0.012273486603",
        "0E-12",
        "0E-12"
      ]
    },
    {
      "created_at": "2025-10-20T00:00:00Z",
      "core_weights": [
        "-0.012703224194",
        "0E-12",
        "0.012703224194",
        "0E-12",
        "0E-12",
        "0E-12",
        "0E-12",
        "0E-12",
        "0E-12",
        "0.012703224194",
        "-0.012703224194",
        "0E-12"
      ]
    },
    {
      "created_at": "2025-10-27T00:00:00Z",
      "core_weights": [
        "-0.025695222468",
        "-0.025695222468",
        "0.025695222468",
        "-0.012847611234",
        "0.025695222468",
        "0E-12",
        "0E-12",
        "0.012847611234",
        "-0.012847611234",
        "0E-12",
        "-0.012847611234",
        "0.025695222468"
      ]
    },
    {
      "created_at": "2025-11-03T00:00:00Z",
      "core_weights": [
        "0E-12",
        "-0.014905609158",
        "0E-12",
        "-0.014905609158",
        "0.029811218317",
        "0E-12",
        "-0.014905609158",
        "0.029811218317",
        "-0.014905609158",
        "0.014905609158",
        "-0.014905609158",
        "0E-12"
      ]
    },
    {
      "created_at": "2025-11-10T00:00:00Z",
      "core_weights": [
        "-0.017209612166",
        "-0.034419224333",
        "0.017209612166",
        "-0.034419224333",
        "0.034419224333",
        "0E-12",
        "-0.034419224333",
        "-0.017209612166",
        "0.034419224333",
        "0.034419224333",
        "0E-12",
        "0.017209612166"
      ]
    },
    {
      "created_at": "2025-11-17T00:00:00Z",
      "core_weights": [
        "-0.017201300467",
        "-0.017201300467",
        "0.017201300467",
        "-0.017201300467",
        "0.034402600934",
        "0E-12",
        "0E-12",
        "-0.017201300467",
        "0E-12",
        "0.034402600934",
        "-0.017201300467",
        "0E-12"
      ]
    },
    {
      "created_at": "2025-11-24T00:00:00Z",
      "core_weights": [
        "-0.016301153831",
        "-0.016301153831",
        "0E-12",
        "0E-12",
        "0E-12",
        "0E-12",
        "0E-12",
        "0.016301153831",
        "-0.016301153831",
        "0.032602307663",
        "0E-12",
        "0E-12"
      ]
    },
    {
      "created_at": "2025-12-01T00:00:00Z",
      "core_weights": [
        "-0.018360671375",
        "0E-12",
        "0E-12",
        "0E-12",
        "0E-12",
        "0E-12",
        "-0.018360671375",
        "0.036721342750",
        "-0.018360671375",
        "0E-12",
        "-0.018360671375",
        "0.036721342750"
      ]
    },
    {
      "created_at": "2025-12-08T00:00:00Z",
      "core_weights": [
        "0E-12",
        "0E-12",
        "0E-12",
        "0.020702768436",
        "0E-12",
        "0E-12",
        "-0.020702768436",
        "0.041405536872",
        "0E-12",
        "-0.041405536872",
        "-0.020702768436",
        "0.020702768436"
      ]
    },
    {
      "created_at": "2025-12-15T00:00:00Z",
      "core_weights": [
        "-0.030377595263",
        "0.030377595263",
        "0E-12",
        "-0.030377595263",
        "0.060755190526",
        "0E-12",
        "-0.060755190526",
        "0.060755190526",
        "-0.030377595263",
        "0E-12",
        "0.030377595263",
        "-0.030377595263"
      ]
    },
    {
      "created_at": "2025-12-22T00:00:00Z",
      "core_weights": [
        "0E-12",
        "0E-12",
        "0E-12",
        "-0.031250000000",
        "0.031250000000",
        "0E-12",
        "-0.031250000000",
        "0E-12",
        "0E-12",
        "0.062500000000",
        "-0.031250000000",
        "0E-12"
      ]
    },
    {
      "created_at": "2025-12-29T00:00:00Z",
      "core_weights": [
        "-0.031250000000",
        "-0.031250000000",
        "0.062500000000",
        "0.031250000000",
        "0.062500000000",
        "0E-12",
        "-0.062500000000",
        "-0.062500000000",
        "0.062500000000",
        "-0.031250000000",
        "0E-12",
        "0E-12"
      ]
    },
    {
      "created_at": "2026-01-05T00:00:00Z",
      "core_weights": [
        "-0.062500000000",
        "-0.031250000000",
        "0E-12",
        "-0.031250000000",
        "0E-12",
        "0E-12",
        "0.031250000000",
        "0E-12",
        "0E-12",
        "-0.031250000000",
        "0.062500000000",
        "0.062500000000"
      ]
    },
    {
      "created_at": "2026-01-12T00:00:00Z",
      "core_weights": [
        "-0.031250000000",
        "-0.031250000000",
        "-0.031250000000",
        "0.031250000000",
        "0E-12",
        "0E-12",
        "-0.031250000000",
        "0E-12",
        "0E-12",
        "0.062500000000",
        "-0.031250000000",
        "0.062500000000"
      ]
    },
    {
      "created_at": "2026-01-19T00:00:00Z",
      "core_weights": [
        "0E-12",
        "0E-12",
        "0E-12",
        "-0.055171810852",
        "0E-12",
        "0E-12",
        "-0.055171810852",
        "0E-12",
        "0E-12",
        "0.055171810852",
        "0E-12",
        "0.055171810852"
      ]
    },
    {
      "created_at": "2026-01-26T00:00:00Z",
      "core_weights": [
        "0E-12",
        "-0.051808891157",
        "0.051808891157",
        "-0.025904445578",
        "0.025904445578",
        "0.025904445578",
        "0E-12",
        "-0.025904445578",
        "0E-12",
        "-0.025904445578",
        "-0.025904445578",
        "0.051808891157"
      ]
    },
    {
      "created_at": "2026-02-02T00:00:00Z",
      "core_weights": [
        "-0.020136731930",
        "-0.040273463861",
        "0.040273463861",
        "-0.020136731930",
        "0.020136731930",
        "0.040273463861",
        "-0.020136731930",
        "-0.040273463861",
        "-0.020136731930",
        "0.020136731930",
        "0E-12",
        "0.040273463861"
      ]
    },
    {
      "created_at": "2026-02-09T00:00:00Z",
      "core_weights": [
        "-0.017945717633",
        "0E-12",
        "0.035891435266",
        "-0.017945717633",
        "-0.017945717633",
        "0.035891435266",
        "0E-12",
        "-0.017945717633",
        "0E-12",
        "0E-12",
        "0E-12",
        "0E-12"
      ]
    },
    {
      "created_at": "2026-02-16T00:00:00Z",
      "core_weights": [
        "-0.038598252994",
        "-0.038598252994",
        "-0.019299126497",
        "-0.038598252994",
        "0.038598252994",
        "0.019299126497",
        "0.019299126497",
        "0.019299126497",
        "-0.019299126497",
        "0E-12",
        "0.019299126497",
        "0.038598252994"
      ]
    },
    {
      "created_at": "2026-02-23T00:00:00Z",
      "core_weights": [
        "0E-12",
        "0E-12",
        "0.020134611279",
        "-0.020134611279",
        "0E-12",
        "0E-12",
        "-0.020134611279",
        "0E-12",
        "0.020134611279",
        "0.020134611279",
        "0E-12",
        "-0.020134611279"
      ]
    },
    {
      "created_at": "2026-03-02T00:00:00Z",
      "core_weights": [
        "-0.024775499129",
        "-0.024775499129",
        "0.049550998259",
        "0.024775499129",
        "0E-12",
        "-0.049550998259",
        "-0.024775499129",
        "-0.024775499129",
        "0.049550998259",
        "0.024775499129",
        "0E-12",
        "0E-12"
      ]
    },
    {
      "created_at": "2026-03-09T00:00:00Z",
      "core_weights": [
        "0E-12",
        "0E-12",
        "0.031250000000",
        "-0.031250000000",
        "0E-12",
        "0E-12",
        "-0.031250000000",
        "-0.031250000000",
        "0.031250000000",
        "0E-12",
        "-0.031250000000",
        "0.062500000000"
      ]
    },
    {
      "created_at": "2026-03-16T00:00:00Z",
      "core_weights": [
        "-0.031250000000",
        "0E-12",
        "0.062500000000",
        "0.031250000000",
        "0.062500000000",
        "0E-12",
        "-0.031250000000",
        "0E-12",
        "0E-12",
        "-0.031250000000",
        "-0.062500000000",
        "0E-12"
      ]
    },
    {
      "created_at": "2026-03-23T00:00:00Z",
      "core_weights": [
        "-0.031250000000",
        "0E-12",
        "0.062500000000",
        "-0.031250000000",
        "0.062500000000",
        "0E-12",
        "0E-12",
        "-0.031250000000",
        "0E-12",
        "0E-12",
        "0E-12",
        "-0.031250000000"
      ]
    },
    {
      "created_at": "2026-03-30T00:00:00Z",
      "core_weights": [
        "0E-12",
        "0E-12",
        "0.031250000000",
        "-0.031250000000",
        "0.062500000000",
        "0E-12",
        "-0.031250000000",
        "-0.031250000000",
        "0E-12",
        "0E-12",
        "0E-12",
        "0E-12"
      ]
    },
    {
      "created_at": "2026-04-06T00:00:00Z",
      "core_weights": [
        "-0.031250000000",
        "0E-12",
        "-0.031250000000",
        "0E-12",
        "0.062500000000",
        "0.062500000000",
        "-0.062500000000",
        "-0.062500000000",
        "0.062500000000",
        "0E-12",
        "0E-12",
        "0E-12"
      ]
    },
    {
      "created_at": "2026-04-13T00:00:00Z",
      "core_weights": [
        "-0.031250000000",
        "0E-12",
        "0.031250000000",
        "-0.062500000000",
        "0.062500000000",
        "0.062500000000",
        "-0.062500000000",
        "-0.031250000000",
        "0E-12",
        "-0.062500000000",
        "0.062500000000",
        "0.031250000000"
      ]
    },
    {
      "created_at": "2026-04-20T00:00:00Z",
      "core_weights": [
        "0E-12",
        "0E-12",
        "0E-12",
        "-0.028703405174",
        "0E-12",
        "0E-12",
        "0E-12",
        "0.028703405174",
        "-0.028703405174",
        "0.028703405174",
        "0E-12",
        "0E-12"
      ]
    },
    {
      "created_at": "2026-04-27T00:00:00Z",
      "core_weights": [
        "0E-12",
        "-0.029357131013",
        "0E-12",
        "-0.029357131013",
        "0.058714262027",
        "0E-12",
        "-0.058714262027",
        "0.058714262027",
        "0E-12",
        "0.058714262027",
        "-0.029357131013",
        "-0.029357131013"
      ]
    },
    {
      "created_at": "2026-05-04T00:00:00Z",
      "core_weights": [
        "-0.029120558258",
        "-0.029120558258",
        "0E-12",
        "-0.058241116517",
        "0.058241116517",
        "0.058241116517",
        "-0.029120558258",
        "-0.029120558258",
        "-0.029120558258",
        "0.029120558258",
        "0E-12",
        "0.058241116517"
      ]
    },
    {
      "created_at": "2026-05-11T00:00:00Z",
      "core_weights": [
        "-0.056267336907",
        "-0.056267336907",
        "-0.028133668453",
        "-0.028133668453",
        "0.056267336907",
        "0.028133668453",
        "-0.028133668453",
        "0E-12",
        "0.056267336907",
        "-0.028133668453",
        "0.056267336907",
        "0.028133668453"
      ]
    },
    {
      "created_at": "2026-05-18T00:00:00Z",
      "core_weights": [
        "-0.031250000000",
        "-0.031250000000",
        "0.062500000000",
        "-0.031250000000",
        "0.031250000000",
        "0E-12",
        "0E-12",
        "-0.031250000000",
        "0.031250000000",
        "0.031250000000",
        "0E-12",
        "-0.031250000000"
      ]
    },
    {
      "created_at": "2026-05-25T00:00:00Z",
      "core_weights": [
        "-0.059249589338",
        "-0.059249589338",
        "0.029624794669",
        "-0.029624794669",
        "0.029624794669",
        "0.059249589338",
        "-0.059249589338",
        "-0.029624794669",
        "0.059249589338",
        "0E-12",
        "0.059249589338",
        "0E-12"
      ]
    },
    {
      "created_at": "2026-06-01T00:00:00Z",
      "core_weights": [
        "-0.039779233775",
        "-0.039779233775",
        "0.019889616887",
        "-0.019889616887",
        "0E-12",
        "0.039779233775",
        "-0.019889616887",
        "0E-12",
        "0.019889616887",
        "-0.019889616887",
        "0.039779233775",
        "0.019889616887"
      ]
    },
    {
      "created_at": "2026-06-08T00:00:00Z",
      "core_weights": [
        "-0.013479312460",
        "-0.013479312460",
        "0E-12",
        "-0.026958624921",
        "0E-12",
        "0.026958624921",
        "0E-12",
        "-0.013479312460",
        "0.013479312460",
        "-0.013479312460",
        "0.026958624921",
        "0.013479312460"
      ]
    },
    {
      "created_at": "2026-06-15T00:00:00Z",
      "core_weights": [
        "-0.025319273502",
        "-0.025319273502",
        "0E-12",
        "-0.012659636751",
        "0.012659636751",
        "0.025319273502",
        "-0.025319273502",
        "0E-12",
        "0.012659636751",
        "0.025319273502",
        "0.025319273502",
        "-0.012659636751"
      ]
    },
    {
      "created_at": "2026-06-22T00:00:00Z",
      "core_weights": [
        "-0.012087170569",
        "-0.012087170569",
        "0.012087170569",
        "0E-12",
        "0E-12",
        "0E-12",
        "-0.012087170569",
        "0.012087170569",
        "0.012087170569",
        "-0.012087170569",
        "0.024174341139",
        "-0.012087170569"
      ]
    },
    {
      "created_at": "2026-06-29T00:00:00Z",
      "core_weights": [
        "-0.013099087748",
        "-0.013099087748",
        "-0.013099087748",
        "0.013099087748",
        "-0.013099087748",
        "0.026198175497",
        "-0.013099087748",
        "0.026198175497",
        "-0.013099087748",
        "-0.013099087748",
        "0E-12",
        "0.026198175497"
      ]
    },
    {
      "created_at": "2026-07-06T00:00:00Z",
      "core_weights": [
        "-0.034933040399",
        "-0.017466520199",
        "0.017466520199",
        "0E-12",
        "0.017466520199",
        "0.034933040399",
        "-0.017466520199",
        "-0.017466520199",
        "0.017466520199",
        "-0.017466520199",
        "0E-12",
        "0.017466520199"
      ]
    }
  ]
}
